<?xml version="1.0"?>
<opencv_storage>
<cascade>
  <stageType>BOOST</stageType>
  <featureType>LBP</featureType>
  <height>60</height>
  <width>60</width>
  <stageParams>
    <boostType>GAB</boostType>
    <minHitRate>9.9500000476837158e-01</minHitRate>
    <maxFalseAlarm>5.0000000000000000e-01</maxFalseAlarm>
    <weightTrimRate>9.4999999999999996e-01</weightTrimRate>
    <maxDepth>1</maxDepth>
    <maxWeakCount>100</maxWeakCount></stageParams>
  <featureParams>
    <maxCatCount>256</maxCatCount>
    <featSize>1</featSize></featureParams>
  <stageNum>8</stageNum>
  <stages>
    <!-- stage 0 -->
    <_>
      <maxWeakCount>2</maxWeakCount>
      <stageThreshold>1.5593254007399082e-02</stageThreshold>
      <weakClassifiers>
        <_>
          <internalNodes>
            0 -1 7 -184428581 -745471728 -2030025971 -251199223
            -2113363831 -2147450880 -1341451601 -341867893</internalNodes>
          <leafValues>
            -9.5439738035202026e-01 1.</leafValues></_>
        <_>
          <internalNodes>
            0 -1 14 -217589301 -1068220406 34 -1048510464 -2147384765
            -2147483646 1879244811 -82852581</internalNodes>
          <leafValues>
            -9.6844470500946045e-01 9.6999067068099976e-01</leafValues></_></weakClassifiers></_>
    <!-- stage 1 -->
    <_>
      <maxWeakCount>2</maxWeakCount>
      <stageThreshold>-5.8885250240564346e-02</stageThreshold>
      <weakClassifiers>
        <_>
          <internalNodes>
            0 -1 4 1073747441 1363214368 16843093 -686751675 -939486037
            -1416101856 -2013232997 -352253824</internalNodes>
          <leafValues>
            -9.7986578941345215e-01 9.0196079015731812e-01</leafValues></_>
        <_>
          <internalNodes>
            0 -1 5 -209459745 -645676525 268500992 -130726503 -367689076
            -997654528 -401178453 -70262101</internalNodes>
          <leafValues>
            -9.6084600687026978e-01 9.5108634233474731e-01</leafValues></_></weakClassifiers></_>
    <!-- stage 2 -->
    <_>
      <maxWeakCount>2</maxWeakCount>
      <stageThreshold>3.0034780502319336e-02</stageThreshold>
      <weakClassifiers>
        <_>
          <internalNodes>
            0 -1 0 -1 -17 -8389121 -5 -11 -134282233 -33554433 -3436033</internalNodes>
          <leafValues>
            -9.5439738035202026e-01 1.</leafValues></_>
        <_>
          <internalNodes>
            0 -1 11 -742132753 -2147303357 1073741824 19095561
            -1071535613 65553 1073905729 -355482981</internalNodes>
          <leafValues>
            -9.4409084320068359e-01 9.8443216085433960e-01</leafValues></_></weakClassifiers></_>
    <!-- stage 3 -->
    <_>
      <maxWeakCount>2</maxWeakCount>
      <stageThreshold>-1.4322107657790184e-02</stageThreshold>
      <weakClassifiers>
        <_>
          <internalNodes>
            0 -1 9 -746334241 -582958976 35127495 -641482741 -1069512801
            1485013251 -1740603233 -274748677</internalNodes>
          <leafValues>
            -9.5424836874008179e-01 9.7872340679168701e-01</leafValues></_>
        <_>
          <internalNodes>
            0 -1 2 -519990309 -787415030 268501009 -46067431 -2004309287
            -1375600640 402835627 -5667189</internalNodes>
          <leafValues>
            -9.4346565008163452e-01 9.3992626667022705e-01</leafValues></_></weakClassifiers></_>
    <!-- stage 4 -->
    <_>
      <maxWeakCount>2</maxWeakCount>
      <stageThreshold>-1.1081027798354626e-02</stageThreshold>
      <weakClassifiers>
        <_>
          <internalNodes>
            0 -1 8 -795352097 -775565047 -2130614061 -662241277
            -1610372197 -513670624 -905590373 -73275253</internalNodes>
          <leafValues>
            -9.6039605140686035e-01 9.3814432621002197e-01</leafValues></_>
        <_>
          <internalNodes>
            0 -1 13 -712772989 -805060341 32768 1233321986 1078002307
            -2147237752 -1073577982 -363859249</internalNodes>
          <leafValues>
            -9.4922536611557007e-01 9.5450866222381592e-01</leafValues></_></weakClassifiers></_>
    <!-- stage 5 -->
    <_>
      <maxWeakCount>2</maxWeakCount>
      <stageThreshold>-1.3919946551322937e-01</stageThreshold>
      <weakClassifiers>
        <_>
          <internalNodes>
            0 -1 10 -482221057 -976142068 -1878917103 -712703999
            -2122282613 -1753022320 -666788645 -4195413</internalNodes>
          <leafValues>
            -9.2926043272018433e-01 1.</leafValues></_>
        <_>
          <internalNodes>
            0 -1 7 -514068041 -245261733 1073987801 -586033085 -70923273
            -81624597 -928855589 1843907863</internalNodes>
          <leafValues>
            -1. 7.9006099700927734e-01</leafValues></_></weakClassifiers></_>
    <!-- stage 6 -->
    <_>
      <maxWeakCount>2</maxWeakCount>
      <stageThreshold>-5.7098742574453354e-02</stageThreshold>
      <weakClassifiers>
        <_>
          <internalNodes>
            0 -1 1 -150867465 -650669933 19693607 -687271905 -1172011857
            -1727522647 -2136374389 -80024701</internalNodes>
          <leafValues>
            -9.6677738428115845e-01 9.1919189691543579e-01</leafValues></_>
        <_>
          <internalNodes>
            0 -1 6 -243016237 -787770989 1611890957 -212238335
            -402478959 -653654007 -536499045 -75246709</internalNodes>
          <leafValues>
            -9.5464396476745605e-01 9.0967863798141479e-01</leafValues></_></weakClassifiers></_>
    <!-- stage 7 -->
    <_>
      <maxWeakCount>2</maxWeakCount>
      <stageThreshold>7.6923079788684845e-02</stageThreshold>
      <weakClassifiers>
        <_>
          <internalNodes>
            0 -1 3 -8388641 -570425349 -8388609 -536870981 -21509 -18005
            -8406017 -1439541</internalNodes>
          <leafValues>
            -9.2307692766189575e-01 1.</leafValues></_>
        <_>
          <internalNodes>
            0 -1 12 -753929349 1612169226 -536625144 -788283309
            -770719741 1091231745 -1073495781 -675036169</internalNodes>
          <leafValues>
            -9.1150122880935669e-01 1.</leafValues></_></weakClassifiers></_></stages>
  <features>
    <_>
      <rect>
        0 1 1 1</rect></_>
    <_>
      <rect>
        0 3 4 2</rect></_>
    <_>
      <rect>
        0 3 18 2</rect></_>
    <_>
      <rect>
        0 5 17 1</rect></_>
    <_>
      <rect>
        0 6 11 1</rect></_>
    <_>
      <rect>
        1 2 1 2</rect></_>
    <_>
      <rect>
        1 2 1 3</rect></_>
    <_>
      <rect>
        2 0 2 2</rect></_>
    <_>
      <rect>
        2 1 1 1</rect></_>
    <_>
      <rect>
        2 5 1 1</rect></_>
    <_>
      <rect>
        5 2 1 1</rect></_>
    <_>
      <rect>
        6 0 1 13</rect></_>
    <_>
      <rect>
        6 1 1 17</rect></_>
    <_>
      <rect>
        6 1 1 18</rect></_>
    <_>
      <rect>
        6 3 1 4</rect></_></features></cascade>
</opencv_storage>
